<?xml version="1.0"?>
<opencv_storage>
<cascade>
  <stageType>BOOST</stageType>
  <featureType>HAAR</featureType>
  <height>30</height>
  <width>30</width>
  <stageParams>
    <boostType>GAB</boostType>
    <minHitRate>9.9900001287460327e-001</minHitRate>
    <maxFalseAlarm>5.0000000000000000e-001</maxFalseAlarm>
    <weightTrimRate>9.4999999999999996e-001</weightTrimRate>
    <maxDepth>1</maxDepth>
    <maxWeakCount>100</maxWeakCount></stageParams>
  <featureParams>
    <maxCatCount>0</maxCatCount>
    <featSize>1</featSize>
    <mode>BASIC</mode></featureParams>
  <stageNum>15</stageNum>
  <stages>
    <!-- stage 0 -->
    <_>
      <maxWeakCount>3</maxWeakCount>
      <stageThreshold>-1.0712887048721313e+000</stageThreshold>
      <weakClassifiers>
        <_>
          <internalNodes>
            0 -1 31 6.1490304768085480e-002</internalNodes>
          <leafValues>
            -9.9051421880722046e-001 9.9185973405838013e-001</leafValues></_>
        <_>
          <internalNodes>
            0 -1 36 5.8368965983390808e-002</internalNodes>
          <leafValues>
            -9.6164768934249878e-001 9.8922693729400635e-001</leafValues></_>
        <_>
          <internalNodes>
            0 -1 38 3.4230113029479980e-002</internalNodes>
          <leafValues>
            -9.4027274847030640e-001 8.8087320327758789e-001</leafValues></_></weakClassifiers></_>
    <!-- stage 1 -->
    <_>
      <maxWeakCount>6</maxWeakCount>
      <stageThreshold>-2.0235307216644287e+000</stageThreshold>
      <weakClassifiers>
        <_>
          <internalNodes>
            0 -1 29 1.2891760468482971e-001</internalNodes>
          <leafValues>
            -9.3413025140762329e-001 9.7678166627883911e-001</leafValues></_>
        <_>
          <internalNodes>
            0 -1 31 1.0956507921218872e-001</internalNodes>
          <leafValues>
            -8.0184042453765869e-001 9.0835648775100708e-001</leafValues></_>
        <_>
          <internalNodes>
            0 -1 48 5.7064503431320190e-002</internalNodes>
          <leafValues>
            -5.8381420373916626e-001 7.1067261695861816e-001</leafValues></_>
        <_>
          <internalNodes>
            0 -1 14 8.4642924368381500e-002</internalNodes>
          <leafValues>
            -4.5403587818145752e-001 8.2131808996200562e-001</leafValues></_>
        <_>
          <internalNodes>
            0 -1 16 6.6481344401836395e-004</internalNodes>
          <leafValues>
            4.4075718522071838e-001 -9.2507988214492798e-001</leafValues></_>
        <_>
          <internalNodes>
            0 -1 16 -5.1529408665373921e-004</internalNodes>
          <leafValues>
            -9.0576738119125366e-001 3.0953297019004822e-001</leafValues></_></weakClassifiers></_>
    <!-- stage 2 -->
    <_>
      <maxWeakCount>5</maxWeakCount>
      <stageThreshold>-1.3607300519943237e+000</stageThreshold>
      <weakClassifiers>
        <_>
          <internalNodes>
            0 -1 30 1.3134568929672241e-001</internalNodes>
          <leafValues>
            -8.9463460445404053e-001 9.3638432025909424e-001</leafValues></_>
        <_>
          <internalNodes>
            0 -1 32 1.2619164586067200e-001</internalNodes>
          <leafValues>
            -6.8812942504882813e-001 7.7269846200942993e-001</leafValues></_>
        <_>
          <internalNodes>
            0 -1 47 6.0582458972930908e-002</internalNodes>
          <leafValues>
            -4.2622762918472290e-001 7.4522340297698975e-001</leafValues></_>
        <_>
          <internalNodes>
            0 -1 19 -3.9016612572595477e-004</internalNodes>
          <leafValues>
            -9.4649732112884521e-001 3.5456198453903198e-001</leafValues></_>
        <_>
          <internalNodes>
            0 -1 19 3.5464105894789100e-004</internalNodes>
          <leafValues>
            2.9369959235191345e-001 -9.4132399559020996e-001</leafValues></_></weakClassifiers></_>
    <!-- stage 3 -->
    <_>
      <maxWeakCount>5</maxWeakCount>
      <stageThreshold>-1.6292784214019775e+000</stageThreshold>
      <weakClassifiers>
        <_>
          <internalNodes>
            0 -1 29 1.7277835309505463e-001</internalNodes>
          <leafValues>
            -7.9859811067581177e-001 8.9657533168792725e-001</leafValues></_>
        <_>
          <internalNodes>
            0 -1 90 -7.3654628067743033e-006</internalNodes>
          <leafValues>
            4.8772639036178589e-001 -7.0841842889785767e-001</leafValues></_>
        <_>
          <internalNodes>
            0 -1 37 1.4705207943916321e-001</internalNodes>
          <leafValues>
            -4.6349477767944336e-001 7.2228783369064331e-001</leafValues></_>
        <_>
          <internalNodes>
            0 -1 52 6.8738572299480438e-002</internalNodes>
          <leafValues>
            -3.3453375101089478e-001 7.1122187376022339e-001</leafValues></_>
        <_>
          <internalNodes>
            0 -1 34 1.1785240471363068e-001</internalNodes>
          <leafValues>
            -3.6998894810676575e-001 8.4449207782745361e-001</leafValues></_></weakClassifiers></_>
    <!-- stage 4 -->
    <_>
      <maxWeakCount>7</maxWeakCount>
      <stageThreshold>-1.6378971338272095e+000</stageThreshold>
      <weakClassifiers>
        <_>
          <internalNodes>
            0 -1 30 1.5884876251220703e-001</internalNodes>
          <leafValues>
            -7.7591168880462646e-001 8.0277043581008911e-001</leafValues></_>
        <_>
          <internalNodes>
            0 -1 37 1.6326074302196503e-001</internalNodes>
          <leafValues>
            -3.7112548947334290e-001 7.4008572101593018e-001</leafValues></_>
        <_>
          <internalNodes>
            0 -1 92 3.7923897616565228e-003</internalNodes>
          <leafValues>
            3.4826993942260742e-001 -8.1058287620544434e-001</leafValues></_>
        <_>
          <internalNodes>
            0 -1 59 1.1330334842205048e-001</internalNodes>
          <leafValues>
            -4.2898267507553101e-001 5.9066402912139893e-001</leafValues></_>
        <_>
          <internalNodes>
            0 -1 3 -5.5216415785253048e-004</internalNodes>
          <leafValues>
            -8.1085371971130371e-001 2.6836231350898743e-001</leafValues></_>
        <_>
          <internalNodes>
            0 -1 2 -3.7503871135413647e-004</internalNodes>
          <leafValues>
            -7.7329564094543457e-001 2.8568977117538452e-001</leafValues></_>
        <_>
          <internalNodes>
            0 -1 33 2.6505428832024336e-004</internalNodes>
          <leafValues>
            2.3399221897125244e-001 -8.6058235168457031e-001</leafValues></_></weakClassifiers></_>
    <!-- stage 5 -->
    <_>
      <maxWeakCount>7</maxWeakCount>
      <stageThreshold>-1.9295253753662109e+000</stageThreshold>
      <weakClassifiers>
        <_>
          <internalNodes>
            0 -1 29 1.9511947035789490e-001</internalNodes>
          <leafValues>
            -6.9451814889907837e-001 8.7518686056137085e-001</leafValues></_>
        <_>
          <internalNodes>
            0 -1 80 -7.1662516347714700e-006</internalNodes>
          <leafValues>
            3.6912235617637634e-001 -7.8137922286987305e-001</leafValues></_>
        <_>
          <internalNodes>
            0 -1 43 3.2726908102631569e-004</internalNodes>
          <leafValues>
            2.5161042809486389e-001 -9.3981665372848511e-001</leafValues></_>
        <_>
          <internalNodes>
            0 -1 42 -7.4053753633052111e-004</internalNodes>
          <leafValues>
            -9.0735685825347900e-001 2.4308943748474121e-001</leafValues></_>
        <_>
          <internalNodes>
            0 -1 80 -3.4727301681414247e-004</internalNodes>
          <leafValues>
            -5.9038394689559937e-001 3.7915515899658203e-001</leafValues></_>
        <_>
          <internalNodes>
            0 -1 78 6.8085046223131940e-006</internalNodes>
          <leafValues>
            -9.3012195825576782e-001 1.9298976659774780e-001</leafValues></_>
        <_>
          <internalNodes>
            0 -1 78 3.0096370028331876e-004</internalNodes>
          <leafValues>
            5.5545580387115479e-001 -5.5098897218704224e-001</leafValues></_></weakClassifiers></_>
    <!-- stage 6 -->
    <_>
      <maxWeakCount>8</maxWeakCount>
      <stageThreshold>-1.7298866510391235e+000</stageThreshold>
      <weakClassifiers>
        <_>
          <internalNodes>
            0 -1 25 2.1956482529640198e-001</internalNodes>
          <leafValues>
            -6.5200436115264893e-001 8.5454547405242920e-001</leafValues></_>
        <_>
          <internalNodes>
            0 -1 75 1.2839410919696093e-004</internalNodes>
          <leafValues>
            3.0854731798171997e-001 -9.3154036998748779e-001</leafValues></_>
        <_>
          <internalNodes>
            0 -1 35 1.0730487108230591e-001</internalNodes>
          <leafValues>
            -4.1181641817092896e-001 6.9975149631500244e-001</leafValues></_>
        <_>
          <internalNodes>
            0 -1 74 -3.3905031159520149e-004</internalNodes>
          <leafValues>
            -9.0991568565368652e-001 2.9216694831848145e-001</leafValues></_>
        <_>
          <internalNodes>
            0 -1 12 1.6312438249588013e-001</internalNodes>
          <leafValues>
            -3.1420716643333435e-001 8.0880653858184814e-001</leafValues></_>
        <_>
          <internalNodes>
            0 -1 67 -2.7461361605674028e-004</internalNodes>
          <leafValues>
            -8.8066774606704712e-001 2.8766161203384399e-001</leafValues></_>
        <_>
          <internalNodes>
            0 -1 18 -9.5756895840167999e-002</internalNodes>
          <leafValues>
            8.2138299942016602e-001 -3.0735307931900024e-001</leafValues></_>
        <_>
          <internalNodes>
            0 -1 2 3.6103243473917246e-004</internalNodes>
          <leafValues>
            3.0720615386962891e-001 -7.9834067821502686e-001</leafValues></_></weakClassifiers></_>
    <!-- stage 7 -->
    <_>
      <maxWeakCount>8</maxWeakCount>
      <stageThreshold>-1.5480208396911621e+000</stageThreshold>
      <weakClassifiers>
        <_>
          <internalNodes>
            0 -1 29 2.1104183793067932e-001</internalNodes>
          <leafValues>
            -6.1458110809326172e-001 8.3021122217178345e-001</leafValues></_>
        <_>
          <internalNodes>
            0 -1 40 2.9904226539656520e-004</internalNodes>
          <leafValues>
            2.7143642306327820e-001 -9.0581971406936646e-001</leafValues></_>
        <_>
          <internalNodes>
            0 -1 27 -6.6818095743656158e-002</internalNodes>
          <leafValues>
            5.2486634254455566e-001 -4.1900539398193359e-001</leafValues></_>
        <_>
          <internalNodes>
            0 -1 39 -3.7025514757260680e-004</internalNodes>
          <leafValues>
            -7.3794859647750854e-001 3.4525597095489502e-001</leafValues></_>
        <_>
          <internalNodes>
            0 -1 17 -1.2720254063606262e-001</internalNodes>
          <leafValues>
            7.3365843296051025e-001 -3.4061416983604431e-001</leafValues></_>
        <_>
          <internalNodes>
            0 -1 64 4.2769789695739746e-002</internalNodes>
          <leafValues>
            -3.5995304584503174e-001 6.2063235044479370e-001</leafValues></_>
        <_>
          <internalNodes>
            0 -1 84 7.3265414357592817e-006</internalNodes>
          <leafValues>
            -7.7522850036621094e-001 3.4753483533859253e-001</leafValues></_>
        <_>
          <internalNodes>
            0 -1 84 2.5281228590756655e-004</internalNodes>
          <leafValues>
            3.8041532039642334e-001 -6.3876152038574219e-001</leafValues></_></weakClassifiers></_>
    <!-- stage 8 -->
    <_>
      <maxWeakCount>8</maxWeakCount>
      <stageThreshold>-2.0814733505249023e+000</stageThreshold>
      <weakClassifiers>
        <_>
          <internalNodes>
            0 -1 24 2.1329730749130249e-001</internalNodes>
          <leafValues>
            -5.8642494678497314e-001 8.0700325965881348e-001</leafValues></_>
        <_>
          <internalNodes>
            0 -1 60 7.0111809691297822e-006</internalNodes>
          <leafValues>
            -5.7588285207748413e-001 4.7583395242691040e-001</leafValues></_>
        <_>
          <internalNodes>
            0 -1 36 7.8924924135208130e-002</internalNodes>
          <leafValues>
            -7.7289664745330811e-001 2.9831615090370178e-001</leafValues></_>
        <_>
          <internalNodes>
            0 -1 71 3.9051554631441832e-004</internalNodes>
          <leafValues>
            2.2772973775863647e-001 -8.1129652261734009e-001</leafValues></_>
        <_>
          <internalNodes>
            0 -1 83 -7.0111809691297822e-006</internalNodes>
          <leafValues>
            2.7759152650833130e-001 -6.6633737087249756e-001</leafValues></_>
        <_>
          <internalNodes>
            0 -1 50 3.4374656388536096e-004</internalNodes>
          <leafValues>
            2.5290423631668091e-001 -7.7392709255218506e-001</leafValues></_>
        <_>
          <internalNodes>
            0 -1 9 1.9420289993286133e-001</internalNodes>
          <leafValues>
            -2.6755872368812561e-001 7.8007471561431885e-001</leafValues></_>
        <_>
          <internalNodes>
            0 -1 68 3.3382500987499952e-004</internalNodes>
          <leafValues>
            3.0918297171592712e-001 -7.7282673120498657e-001</leafValues></_></weakClassifiers></_>
    <!-- stage 9 -->
    <_>
      <maxWeakCount>8</maxWeakCount>
      <stageThreshold>-1.4187039136886597e+000</stageThreshold>
      <weakClassifiers>
        <_>
          <internalNodes>
            0 -1 29 2.3582355678081512e-001</internalNodes>
          <leafValues>
            -5.0038701295852661e-001 8.7893700599670410e-001</leafValues></_>
        <_>
          <internalNodes>
            0 -1 0 -3.6323938518762589e-002</internalNodes>
          <leafValues>
            4.2826238274574280e-001 -6.8349760770797729e-001</leafValues></_>
        <_>
          <internalNodes>
            0 -1 81 -2.1233229199424386e-004</internalNodes>
          <leafValues>
            2.7899089455604553e-001 -7.9087364673614502e-001</leafValues></_>
        <_>
          <internalNodes>
            0 -1 88 7.1125614340417087e-006</internalNodes>
          <leafValues>
            -7.8685200214385986e-001 2.3860695958137512e-001</leafValues></_>
        <_>
          <internalNodes>
            0 -1 88 1.4193920651450753e-004</internalNodes>
          <leafValues>
            3.7408983707427979e-001 -6.2143850326538086e-001</leafValues></_>
        <_>
          <internalNodes>
            0 -1 66 -5.0205081701278687e-002</internalNodes>
          <leafValues>
            6.1151248216629028e-001 -3.8415002822875977e-001</leafValues></_>
        <_>
          <internalNodes>
            0 -1 15 9.5624558627605438e-002</internalNodes>
          <leafValues>
            -3.0120939016342163e-001 7.9666799306869507e-001</leafValues></_>
        <_>
          <internalNodes>
            0 -1 4 -4.7724392265081406e-002</internalNodes>
          <leafValues>
            6.2858271598815918e-001 -3.5432726144790649e-001</leafValues></_></weakClassifiers></_>
    <!-- stage 10 -->
    <_>
      <maxWeakCount>9</maxWeakCount>
      <stageThreshold>-1.6778155565261841e+000</stageThreshold>
      <weakClassifiers>
        <_>
          <internalNodes>
            0 -1 24 2.2996413707733154e-001</internalNodes>
          <leafValues>
            -4.9135705828666687e-001 7.7203506231307983e-001</leafValues></_>
        <_>
          <internalNodes>
            0 -1 70 6.6218402935191989e-005</internalNodes>
          <leafValues>
            2.8890320658683777e-001 -8.7660247087478638e-001</leafValues></_>
        <_>
          <internalNodes>
            0 -1 41 -4.8797592520713806e-002</internalNodes>
          <leafValues>
            6.2163692712783813e-001 -3.8277190923690796e-001</leafValues></_>
        <_>
          <internalNodes>
            0 -1 51 3.4448124468326569e-002</internalNodes>
          <leafValues>
            -2.3288272321224213e-001 7.6056331396102905e-001</leafValues></_>
        <_>
          <internalNodes>
            0 -1 8 -2.1219695918262005e-003</internalNodes>
          <leafValues>
            2.8219231963157654e-001 -7.7264261245727539e-001</leafValues></_>
        <_>
          <internalNodes>
            0 -1 26 7.2502384682593402e-006</internalNodes>
          <leafValues>
            -5.0642919540405273e-001 3.7210053205490112e-001</leafValues></_>
        <_>
          <internalNodes>
            0 -1 56 6.1029810458421707e-002</internalNodes>
          <leafValues>
            2.1572415530681610e-001 -8.7186902761459351e-001</leafValues></_>
        <_>
          <internalNodes>
            0 -1 79 6.3094164943322539e-005</internalNodes>
          <leafValues>
            1.1030124127864838e-001 -9.4407272338867188e-001</leafValues></_>
        <_>
          <internalNodes>
            0 -1 86 1.8688688578549773e-004</internalNodes>
          <leafValues>
            2.0401008427143097e-001 -7.9383289813995361e-001</leafValues></_></weakClassifiers></_>
    <!-- stage 11 -->
    <_>
      <maxWeakCount>12</maxWeakCount>
      <stageThreshold>-1.5959483385086060e+000</stageThreshold>
      <weakClassifiers>
        <_>
          <internalNodes>
            0 -1 23 2.8198391199111938e-001</internalNodes>
          <leafValues>
            -4.1311058402061462e-001 8.7123447656631470e-001</leafValues></_>
        <_>
          <internalNodes>
            0 -1 87 1.3972053238830995e-005</internalNodes>
          <leafValues>
            -7.7715563774108887e-001 3.1542134284973145e-001</leafValues></_>
        <_>
          <internalNodes>
            0 -1 87 1.5463968156836927e-004</internalNodes>
          <leafValues>
            3.4472644329071045e-001 -4.9780806899070740e-001</leafValues></_>
        <_>
          <internalNodes>
            0 -1 89 7.2057150646287482e-006</internalNodes>
          <leafValues>
            -7.0354735851287842e-001 2.1999381482601166e-001</leafValues></_>
        <_>
          <internalNodes>
            0 -1 89 1.4634951367042959e-004</internalNodes>
          <leafValues>
            2.8083282709121704e-001 -6.2383824586868286e-001</leafValues></_>
        <_>
          <internalNodes>
            0 -1 76 -7.4439353738853242e-006</internalNodes>
          <leafValues>
            2.8499332070350647e-001 -6.0823726654052734e-001</leafValues></_>
        <_>
          <internalNodes>
            0 -1 77 -1.7277343431487679e-004</internalNodes>
          <leafValues>
            -8.0269855260848999e-001 2.5788879394531250e-001</leafValues></_>
        <_>
          <internalNodes>
            0 -1 31 1.1040905117988586e-001</internalNodes>
          <leafValues>
            -7.6629066467285156e-001 2.1765929460525513e-001</leafValues></_>
        <_>
          <internalNodes>
            0 -1 6 1.5138898789882660e-001</internalNodes>
          <leafValues>
            -2.4615612626075745e-001 8.2501721382141113e-001</leafValues></_>
        <_>
          <internalNodes>
            0 -1 86 -2.8642732650041580e-004</internalNodes>
          <leafValues>
            -8.8311809301376343e-001 2.1863754093647003e-001</leafValues></_>
        <_>
          <internalNodes>
            0 -1 13 -1.5033280849456787e-001</internalNodes>
          <leafValues>
            6.5379142761230469e-001 -3.1148096919059753e-001</leafValues></_>
        <_>
          <internalNodes>
            0 -1 49 7.8720840974710882e-005</internalNodes>
          <leafValues>
            2.4389281868934631e-001 -7.8992050886154175e-001</leafValues></_></weakClassifiers></_>
    <!-- stage 12 -->
    <_>
      <maxWeakCount>12</maxWeakCount>
      <stageThreshold>-1.8307261466979980e+000</stageThreshold>
      <weakClassifiers>
        <_>
          <internalNodes>
            0 -1 23 2.8880906105041504e-001</internalNodes>
          <leafValues>
            -3.8810500502586365e-001 8.5758900642395020e-001</leafValues></_>
        <_>
          <internalNodes>
            0 -1 53 -7.7916110967635177e-006</internalNodes>
          <leafValues>
            3.4290143847465515e-001 -5.7487934827804565e-001</leafValues></_>
        <_>
          <internalNodes>
            0 -1 85 -1.2354294303804636e-003</internalNodes>
          <leafValues>
            2.4849723279476166e-001 -6.8557626008987427e-001</leafValues></_>
        <_>
          <internalNodes>
            0 -1 44 -1.2520216114353389e-004</internalNodes>
          <leafValues>
            -7.1846687793731689e-001 2.3937384784221649e-001</leafValues></_>
        <_>
          <internalNodes>
            0 -1 28 -1.1078123748302460e-001</internalNodes>
          <leafValues>
            7.9753810167312622e-001 -2.6807332038879395e-001</leafValues></_>
        <_>
          <internalNodes>
            0 -1 55 7.0111809691297822e-006</internalNodes>
          <leafValues>
            -5.2346843481063843e-001 3.8107359409332275e-001</leafValues></_>
        <_>
          <internalNodes>
            0 -1 72 2.8903310885652900e-004</internalNodes>
          <leafValues>
            1.9360843300819397e-001 -7.5635933876037598e-001</leafValues></_>
        <_>
          <internalNodes>
            0 -1 77 -1.3735299035033677e-005</internalNodes>
          <leafValues>
            3.4259411692619324e-001 -4.2828065156936646e-001</leafValues></_>
        <_>
          <internalNodes>
            0 -1 73 -1.5169779362622648e-004</internalNodes>
          <leafValues>
            -6.5778338909149170e-001 2.3853828012943268e-001</leafValues></_>
        <_>
          <internalNodes>
            0 -1 7 -6.3217729330062866e-002</internalNodes>
          <leafValues>
            7.4757230281829834e-001 -2.6251593232154846e-001</leafValues></_>
        <_>
          <internalNodes>
            0 -1 22 -6.1666948022320867e-004</internalNodes>
          <leafValues>
            2.7608174085617065e-001 -7.3362225294113159e-001</leafValues></_>
        <_>
          <internalNodes>
            0 -1 46 7.8674220276298001e-006</internalNodes>
          <leafValues>
            -4.2652469873428345e-001 4.2884352803230286e-001</leafValues></_></weakClassifiers></_>
    <!-- stage 13 -->
    <_>
      <maxWeakCount>12</maxWeakCount>
      <stageThreshold>-1.6967039108276367e+000</stageThreshold>
      <weakClassifiers>
        <_>
          <internalNodes>
            0 -1 25 2.7467459440231323e-001</internalNodes>
          <leafValues>
            -4.0130475163459778e-001 7.3732972145080566e-001</leafValues></_>
        <_>
          <internalNodes>
            0 -1 58 5.6302454322576523e-003</internalNodes>
          <leafValues>
            -2.5002881884574890e-001 6.4038908481597900e-001</leafValues></_>
        <_>
          <internalNodes>
            0 -1 89 1.4231127352104522e-005</internalNodes>
          <leafValues>
            -7.1279364824295044e-001 2.5036999583244324e-001</leafValues></_>
        <_>
          <internalNodes>
            0 -1 11 1.1482273042201996e-001</internalNodes>
          <leafValues>
            -3.0159416794776917e-001 5.7885485887527466e-001</leafValues></_>
        <_>
          <internalNodes>
            0 -1 89 1.1195114348083735e-004</internalNodes>
          <leafValues>
            4.5670369267463684e-001 -4.0127596259117126e-001</leafValues></_>
        <_>
          <internalNodes>
            0 -1 5 -6.9791808724403381e-002</internalNodes>
          <leafValues>
            4.0639504790306091e-001 -5.4745751619338989e-001</leafValues></_>
        <_>
          <internalNodes>
            0 -1 45 -1.6383139882236719e-004</internalNodes>
          <leafValues>
            -7.8280216455459595e-001 2.6725900173187256e-001</leafValues></_>
        <_>
          <internalNodes>
            0 -1 62 -5.9619373641908169e-003</internalNodes>
          <leafValues>
            6.7989426851272583e-001 -2.6399353146553040e-001</leafValues></_>
        <_>
          <internalNodes>
            0 -1 82 -6.7861451498174574e-006</internalNodes>
          <leafValues>
            2.9568016529083252e-001 -6.2394791841506958e-001</leafValues></_>
        <_>
          <internalNodes>
            0 -1 82 -1.5655085735488683e-004</internalNodes>
          <leafValues>
            -6.1310404539108276e-001 2.6283985376358032e-001</leafValues></_>
        <_>
          <internalNodes>
            0 -1 69 -3.9094090461730957e-002</internalNodes>
          <leafValues>
            2.5911426544189453e-001 -6.6023838520050049e-001</leafValues></_>
        <_>
          <internalNodes>
            0 -1 91 4.1845059604384005e-004</internalNodes>
          <leafValues>
            1.4375030994415283e-001 -8.1957513093948364e-001</leafValues></_></weakClassifiers></_>
    <!-- stage 14 -->
    <_>
      <maxWeakCount>11</maxWeakCount>
      <stageThreshold>-1.7009766101837158e+000</stageThreshold>
      <weakClassifiers>
        <_>
          <internalNodes>
            0 -1 20 3.3041310310363770e-001</internalNodes>
          <leafValues>
            -3.3424657583236694e-001 8.4705883264541626e-001</leafValues></_>
        <_>
          <internalNodes>
            0 -1 21 -2.0479806698858738e-004</internalNodes>
          <leafValues>
            3.0624997615814209e-001 -5.8566755056381226e-001</leafValues></_>
        <_>
          <internalNodes>
            0 -1 54 3.2714541885070503e-004</internalNodes>
          <leafValues>
            2.1368679404258728e-001 -7.0919358730316162e-001</leafValues></_>
        <_>
          <internalNodes>
            0 -1 65 -2.8617976931855083e-004</internalNodes>
          <leafValues>
            -7.9635632038116455e-001 1.9161210954189301e-001</leafValues></_>
        <_>
          <internalNodes>
            0 -1 10 2.0179173350334167e-001</internalNodes>
          <leafValues>
            -2.6968365907669067e-001 6.8306267261505127e-001</leafValues></_>
        <_>
          <internalNodes>
            0 -1 78 6.8085046223131940e-006</internalNodes>
          <leafValues>
            -8.6983215808868408e-001 2.3172204196453094e-001</leafValues></_>
        <_>
          <internalNodes>
            0 -1 78 2.2434900165535510e-004</internalNodes>
          <leafValues>
            4.1336792707443237e-001 -4.9617922306060791e-001</leafValues></_>
        <_>
          <internalNodes>
            0 -1 63 -5.4876338690519333e-002</internalNodes>
          <leafValues>
            5.6711572408676147e-001 -3.6266139149665833e-001</leafValues></_>
        <_>
          <internalNodes>
            0 -1 1 -5.7141846045851707e-003</internalNodes>
          <leafValues>
            2.4659594893455505e-001 -7.1579176187515259e-001</leafValues></_>
        <_>
          <internalNodes>
            0 -1 57 2.4800351820886135e-003</internalNodes>
          <leafValues>
            -2.5660896301269531e-001 6.7429858446121216e-001</leafValues></_>
        <_>
          <internalNodes>
            0 -1 61 -2.4614837020635605e-003</internalNodes>
          <leafValues>
            6.8284159898757935e-001 -2.4705390632152557e-001</leafValues></_></weakClassifiers></_></stages>
  <features>
    <_>
      <rects>
        <_>
          0 0 12 30 -1.</_>
        <_>
          0 0 6 15 2.</_>
        <_>
          6 15 6 15 2.</_></rects>
      <tilted>0</tilted></_>
    <_>
      <rects>
        <_>
          0 4 30 6 -1.</_>
        <_>
          0 4 15 3 2.</_>
        <_>
          15 7 15 3 2.</_></rects>
      <tilted>0</tilted></_>
    <_>
      <rects>
        <_>
          0 5 1 6 -1.</_>
        <_>
          0 7 1 2 3.</_></rects>
      <tilted>0</tilted></_>
    <_>
      <rects>
        <_>
          0 7 1 6 -1.</_>
        <_>
          0 10 1 3 2.</_></rects>
      <tilted>0</tilted></_>
    <_>
      <rects>
        <_>
          0 9 16 12 -1.</_>
        <_>
          0 13 16 4 3.</_></rects>
      <tilted>0</tilted></_>
    <_>
      <rects>
        <_>
          1 8 16 15 -1.</_>
        <_>
          1 13 16 5 3.</_></rects>
      <tilted>0</tilted></_>
    <_>
      <rects>
        <_>
          1 8 28 12 -1.</_>
        <_>
          1 12 28 4 3.</_></rects>
      <tilted>0</tilted></_>
    <_>
      <rects>
        <_>
          1 13 18 4 -1.</_>
        <_>
          7 13 6 4 3.</_></rects>
      <tilted>0</tilted></_>
    <_>
      <rects>
        <_>
          1 20 28 4 -1.</_>
        <_>
          1 20 14 2 2.</_>
        <_>
          15 22 14 2 2.</_></rects>
      <tilted>0</tilted></_>
    <_>
      <rects>
        <_>
          2 7 24 15 -1.</_>
        <_>
          2 12 24 5 3.</_></rects>
      <tilted>0</tilted></_>
    <_>
      <rects>
        <_>
          2 7 25 15 -1.</_>
        <_>
          2 12 25 5 3.</_></rects>
      <tilted>0</tilted></_>
    <_>
      <rects>
        <_>
          3 6 12 15 -1.</_>
        <_>
          3 11 12 5 3.</_></rects>
      <tilted>0</tilted></_>
    <_>
      <rects>
        <_>
          3 7 24 15 -1.</_>
        <_>
          3 12 24 5 3.</_></rects>
      <tilted>0</tilted></_>
    <_>
      <rects>
        <_>
          3 7 26 15 -1.</_>
        <_>
          3 12 26 5 3.</_></rects>
      <tilted>0</tilted></_>
    <_>
      <rects>
        <_>
          3 8 18 12 -1.</_>
        <_>
          3 8 9 6 2.</_>
        <_>
          12 14 9 6 2.</_></rects>
      <tilted>0</tilted></_>
    <_>
      <rects>
        <_>
          3 8 24 12 -1.</_>
        <_>
          3 12 24 4 3.</_></rects>
      <tilted>0</tilted></_>
    <_>
      <rects>
        <_>
          3 28 6 1 -1.</_>
        <_>
          5 28 2 1 3.</_></rects>
      <tilted>0</tilted></_>
    <_>
      <rects>
        <_>
          4 7 21 15 -1.</_>
        <_>
          4 12 21 5 3.</_></rects>
      <tilted>0</tilted></_>
    <_>
      <rects>
        <_>
          4 9 9 10 -1.</_>
        <_>
          4 14 9 5 2.</_></rects>
      <tilted>0</tilted></_>
    <_>
      <rects>
        <_>
          4 28 3 2 -1.</_>
        <_>
          5 28 1 2 3.</_></rects>
      <tilted>0</tilted></_>
    <_>
      <rects>
        <_>
          5 6 20 16 -1.</_>
        <_>
          5 6 10 8 2.</_>
        <_>
          15 14 10 8 2.</_></rects>
      <tilted>0</tilted></_>
    <_>
      <rects>
        <_>
          5 14 6 6 -1.</_>
        <_>
          7 14 2 6 3.</_></rects>
      <tilted>0</tilted></_>
    <_>
      <rects>
        <_>
          6 1 4 28 -1.</_>
        <_>
          6 1 2 14 2.</_>
        <_>
          8 15 2 14 2.</_></rects>
      <tilted>0</tilted></_>
    <_>
      <rects>
        <_>
          6 6 18 16 -1.</_>
        <_>
          6 6 9 8 2.</_>
        <_>
          15 14 9 8 2.</_></rects>
      <tilted>0</tilted></_>
    <_>
      <rects>
        <_>
          6 7 18 14 -1.</_>
        <_>
          6 7 9 7 2.</_>
        <_>
          15 14 9 7 2.</_></rects>
      <tilted>0</tilted></_>
    <_>
      <rects>
        <_>
          6 7 18 16 -1.</_>
        <_>
          6 7 9 8 2.</_>
        <_>
          15 15 9 8 2.</_></rects>
      <tilted>0</tilted></_>
    <_>
      <rects>
        <_>
          6 10 8 2 -1.</_>
        <_>
          6 11 8 1 2.</_></rects>
      <tilted>0</tilted></_>
    <_>
      <rects>
        <_>
          6 11 8 10 -1.</_>
        <_>
          6 16 8 5 2.</_></rects>
      <tilted>0</tilted></_>
    <_>
      <rects>
        <_>
          6 15 18 11 -1.</_>
        <_>
          12 15 6 11 3.</_></rects>
      <tilted>0</tilted></_>
    <_>
      <rects>
        <_>
          7 6 16 16 -1.</_>
        <_>
          7 6 8 8 2.</_>
        <_>
          15 14 8 8 2.</_></rects>
      <tilted>0</tilted></_>
    <_>
      <rects>
        <_>
          7 7 16 14 -1.</_>
        <_>
          7 7 8 7 2.</_>
        <_>
          15 14 8 7 2.</_></rects>
      <tilted>0</tilted></_>
    <_>
      <rects>
        <_>
          7 8 16 14 -1.</_>
        <_>
          7 8 8 7 2.</_>
        <_>
          15 15 8 7 2.</_></rects>
      <tilted>0</tilted></_>
    <_>
      <rects>
        <_>
          7 8 16 16 -1.</_>
        <_>
          7 8 8 8 2.</_>
        <_>
          15 16 8 8 2.</_></rects>
      <tilted>0</tilted></_>
    <_>
      <rects>
        <_>
          7 14 3 7 -1.</_>
        <_>
          8 14 1 7 3.</_></rects>
      <tilted>0</tilted></_>
    <_>
      <rects>
        <_>
          7 15 18 10 -1.</_>
        <_>
          13 15 6 10 3.</_></rects>
      <tilted>0</tilted></_>
    <_>
      <rects>
        <_>
          8 4 14 14 -1.</_>
        <_>
          8 4 7 7 2.</_>
        <_>
          15 11 7 7 2.</_></rects>
      <tilted>0</tilted></_>
    <_>
      <rects>
        <_>
          8 8 14 12 -1.</_>
        <_>
          8 8 7 6 2.</_>
        <_>
          15 14 7 6 2.</_></rects>
      <tilted>0</tilted></_>
    <_>
      <rects>
        <_>
          8 8 14 16 -1.</_>
        <_>
          8 8 7 8 2.</_>
        <_>
          15 16 7 8 2.</_></rects>
      <tilted>0</tilted></_>
    <_>
      <rects>
        <_>
          8 10 16 10 -1.</_>
        <_>
          8 10 8 5 2.</_>
        <_>
          16 15 8 5 2.</_></rects>
      <tilted>0</tilted></_>
    <_>
      <rects>
        <_>
          8 13 3 4 -1.</_>
        <_>
          9 13 1 4 3.</_></rects>
      <tilted>0</tilted></_>
    <_>
      <rects>
        <_>
          8 14 3 7 -1.</_>
        <_>
          9 14 1 7 3.</_></rects>
      <tilted>0</tilted></_>
    <_>
      <rects>
        <_>
          8 14 12 10 -1.</_>
        <_>
          12 14 4 10 3.</_></rects>
      <tilted>0</tilted></_>
    <_>
      <rects>
        <_>
          9 4 3 13 -1.</_>
        <_>
          10 4 1 13 3.</_></rects>
      <tilted>0</tilted></_>
    <_>
      <rects>
        <_>
          9 14 3 6 -1.</_>
        <_>
          10 14 1 6 3.</_></rects>
      <tilted>0</tilted></_>
    <_>
      <rects>
        <_>
          9 17 4 2 -1.</_>
        <_>
          9 17 2 1 2.</_>
        <_>
          11 18 2 1 2.</_></rects>
      <tilted>0</tilted></_>
    <_>
      <rects>
        <_>
          9 18 4 2 -1.</_>
        <_>
          9 18 2 1 2.</_>
        <_>
          11 19 2 1 2.</_></rects>
      <tilted>0</tilted></_>
    <_>
      <rects>
        <_>
          10 11 3 2 -1.</_>
        <_>
          10 12 3 1 2.</_></rects>
      <tilted>0</tilted></_>
    <_>
      <rects>
        <_>
          10 15 14 5 -1.</_>
        <_>
          17 15 7 5 2.</_></rects>
      <tilted>0</tilted></_>
    <_>
      <rects>
        <_>
          10 15 14 8 -1.</_>
        <_>
          17 15 7 8 2.</_></rects>
      <tilted>0</tilted></_>
    <_>
      <rects>
        <_>
          10 18 3 2 -1.</_>
        <_>
          11 18 1 2 3.</_></rects>
      <tilted>0</tilted></_>
    <_>
      <rects>
        <_>
          10 18 8 3 -1.</_>
        <_>
          10 19 8 1 3.</_></rects>
      <tilted>0</tilted></_>
    <_>
      <rects>
        <_>
          11 15 9 11 -1.</_>
        <_>
          14 15 3 11 3.</_></rects>
      <tilted>0</tilted></_>
    <_>
      <rects>
        <_>
          11 15 12 7 -1.</_>
        <_>
          17 15 6 7 2.</_></rects>
      <tilted>0</tilted></_>
    <_>
      <rects>
        <_>
          11 17 3 2 -1.</_>
        <_>
          12 17 1 2 3.</_></rects>
      <tilted>0</tilted></_>
    <_>
      <rects>
        <_>
          11 18 8 3 -1.</_>
        <_>
          11 19 8 1 3.</_></rects>
      <tilted>0</tilted></_>
    <_>
      <rects>
        <_>
          12 8 2 2 -1.</_>
        <_>
          12 9 2 1 2.</_></rects>
      <tilted>0</tilted></_>
    <_>
      <rects>
        <_>
          12 12 16 16 -1.</_>
        <_>
          12 12 8 8 2.</_>
        <_>
          20 20 8 8 2.</_></rects>
      <tilted>0</tilted></_>
    <_>
      <rects>
        <_>
          12 13 6 1 -1.</_>
        <_>
          15 13 3 1 2.</_></rects>
      <tilted>0</tilted></_>
    <_>
      <rects>
        <_>
          12 13 6 2 -1.</_>
        <_>
          15 13 3 2 2.</_></rects>
      <tilted>0</tilted></_>
    <_>
      <rects>
        <_>
          12 14 18 9 -1.</_>
        <_>
          18 14 6 9 3.</_></rects>
      <tilted>0</tilted></_>
    <_>
      <rects>
        <_>
          13 9 1 2 -1.</_>
        <_>
          13 10 1 1 2.</_></rects>
      <tilted>0</tilted></_>
    <_>
      <rects>
        <_>
          13 14 6 1 -1.</_>
        <_>
          15 14 2 1 3.</_></rects>
      <tilted>0</tilted></_>
    <_>
      <rects>
        <_>
          14 5 2 21 -1.</_>
        <_>
          15 5 1 21 2.</_></rects>
      <tilted>0</tilted></_>
    <_>
      <rects>
        <_>
          15 8 13 12 -1.</_>
        <_>
          15 12 13 4 3.</_></rects>
      <tilted>0</tilted></_>
    <_>
      <rects>
        <_>
          15 9 11 12 -1.</_>
        <_>
          15 13 11 4 3.</_></rects>
      <tilted>0</tilted></_>
    <_>
      <rects>
        <_>
          15 18 6 3 -1.</_>
        <_>
          15 19 6 1 3.</_></rects>
      <tilted>0</tilted></_>
    <_>
      <rects>
        <_>
          16 7 10 12 -1.</_>
        <_>
          16 11 10 4 3.</_></rects>
      <tilted>0</tilted></_>
    <_>
      <rects>
        <_>
          16 18 7 3 -1.</_>
        <_>
          16 19 7 1 3.</_></rects>
      <tilted>0</tilted></_>
    <_>
      <rects>
        <_>
          18 5 3 12 -1.</_>
        <_>
          19 5 1 12 3.</_></rects>
      <tilted>0</tilted></_>
    <_>
      <rects>
        <_>
          18 6 12 16 -1.</_>
        <_>
          18 6 6 8 2.</_>
        <_>
          24 14 6 8 2.</_></rects>
      <tilted>0</tilted></_>
    <_>
      <rects>
        <_>
          18 16 2 1 -1.</_>
        <_>
          19 16 1 1 2.</_></rects>
      <tilted>0</tilted></_>
    <_>
      <rects>
        <_>
          19 7 3 11 -1.</_>
        <_>
          20 7 1 11 3.</_></rects>
      <tilted>0</tilted></_>
    <_>
      <rects>
        <_>
          19 12 3 5 -1.</_>
        <_>
          20 12 1 5 3.</_></rects>
      <tilted>0</tilted></_>
    <_>
      <rects>
        <_>
          19 13 3 3 -1.</_>
        <_>
          20 13 1 3 3.</_></rects>
      <tilted>0</tilted></_>
    <_>
      <rects>
        <_>
          19 15 3 6 -1.</_>
        <_>
          20 15 1 6 3.</_></rects>
      <tilted>0</tilted></_>
    <_>
      <rects>
        <_>
          19 16 2 2 -1.</_>
        <_>
          20 16 1 2 2.</_></rects>
      <tilted>0</tilted></_>
    <_>
      <rects>
        <_>
          19 17 2 3 -1.</_>
        <_>
          20 17 1 3 2.</_></rects>
      <tilted>0</tilted></_>
    <_>
      <rects>
        <_>
          19 19 2 1 -1.</_>
        <_>
          20 19 1 1 2.</_></rects>
      <tilted>0</tilted></_>
    <_>
      <rects>
        <_>
          20 15 2 2 -1.</_>
        <_>
          20 16 2 1 2.</_></rects>
      <tilted>0</tilted></_>
    <_>
      <rects>
        <_>
          20 16 2 2 -1.</_>
        <_>
          21 16 1 2 2.</_></rects>
      <tilted>0</tilted></_>
    <_>
      <rects>
        <_>
          20 16 4 1 -1.</_>
        <_>
          22 16 2 1 2.</_></rects>
      <tilted>0</tilted></_>
    <_>
      <rects>
        <_>
          21 0 2 28 -1.</_>
        <_>
          21 0 1 14 2.</_>
        <_>
          22 14 1 14 2.</_></rects>
      <tilted>0</tilted></_>
    <_>
      <rects>
        <_>
          21 15 2 1 -1.</_>
        <_>
          22 15 1 1 2.</_></rects>
      <tilted>0</tilted></_>
    <_>
      <rects>
        <_>
          21 15 2 2 -1.</_>
        <_>
          22 15 1 2 2.</_></rects>
      <tilted>0</tilted></_>
    <_>
      <rects>
        <_>
          21 16 2 2 -1.</_>
        <_>
          21 17 2 1 2.</_></rects>
      <tilted>0</tilted></_>
    <_>
      <rects>
        <_>
          22 0 2 28 -1.</_>
        <_>
          22 0 1 14 2.</_>
        <_>
          23 14 1 14 2.</_></rects>
      <tilted>0</tilted></_>
    <_>
      <rects>
        <_>
          22 1 4 2 -1.</_>
        <_>
          22 1 2 1 2.</_>
        <_>
          24 2 2 1 2.</_></rects>
      <tilted>0</tilted></_>
    <_>
      <rects>
        <_>
          22 14 1 2 -1.</_>
        <_>
          22 15 1 1 2.</_></rects>
      <tilted>0</tilted></_>
    <_>
      <rects>
        <_>
          22 15 1 2 -1.</_>
        <_>
          22 16 1 1 2.</_></rects>
      <tilted>0</tilted></_>
    <_>
      <rects>
        <_>
          22 16 1 2 -1.</_>
        <_>
          22 17 1 1 2.</_></rects>
      <tilted>0</tilted></_>
    <_>
      <rects>
        <_>
          23 16 2 1 -1.</_>
        <_>
          24 16 1 1 2.</_></rects>
      <tilted>0</tilted></_>
    <_>
      <rects>
        <_>
          23 27 5 2 -1.</_>
        <_>
          23 28 5 1 2.</_></rects>
      <tilted>0</tilted></_>
    <_>
      <rects>
        <_>
          26 17 4 8 -1.</_>
        <_>
          26 21 4 4 2.</_></rects>
      <tilted>0</tilted></_></features></cascade>
</opencv_storage>
